//Numpy array shape [1, 16, 32]
//Min -1.561252832413
//Max 2.079132080078
//Number of zeros 0

#ifndef W26_H_
#define W26_H_

#ifndef __SYNTHESIS__
ffn1_weight_t w26[512];
#else
ffn1_weight_t w26[512] = {0.2603718638, 0.2195126265, -0.4329701364, 0.2792147398, 0.2064539790, -0.4091531932, 0.4807589054, -0.6137263179, -0.0413625836, 0.6180223227, 0.7537009716, -0.0096133370, 0.3448167741, -0.3783208430, 0.0310569480, -0.0347038768, -0.2122880220, -0.6324346662, -0.1673924923, 0.0906696394, 0.1695296764, 0.2809350789, -0.1530017108, 0.1969990432, 0.3845791221, -0.1521286964, 0.7666122317, -0.3139356673, -0.5029348135, -0.7139368653, -0.4417000115, -0.7353552580, -0.2773599625, -0.1026797593, 0.0695490763, 0.0502382964, -0.2732198238, 0.0163787715, -0.2432014197, -0.3954999447, -0.2898439169, 0.4207912683, 0.0810798630, 0.6405058503, 0.0520717725, 0.1997597814, 0.4528535008, 0.2469049096, -0.4155804217, 0.1349958330, 0.3916296661, 0.4622431695, 0.0641802102, 1.0270340443, 1.2013959885, 0.0899669603, 0.2583543658, -0.1348653585, 0.3257955015, 0.1255255938, 0.3990634084, -0.6297932267, -0.2633334994, 0.4170010388, 0.3336913586, 0.2288528532, -0.2709725499, -0.2717072964, -0.3060245514, 0.4132365286, 0.4000154436, -0.2627045810, 0.1779879779, 0.1091423705, 0.3873385787, -0.3649987876, 0.0883714110, 0.1876173168, 0.4383626580, 0.2308826894, -0.7754905820, 0.7290013433, 0.2398400903, 0.5192950964, 0.6475839615, -0.6266544461, -1.3433536291, 0.0197017174, 0.2843894660, 0.3234083951, 0.2527838349, -0.3692507148, -0.5497575998, -0.1841642708, 0.3346414566, 0.2020446807, 0.0651990250, -0.1830503941, -0.7360906005, 0.2376671731, -0.2649862766, 0.1991702914, 0.5009483099, -0.1378998309, 0.0572253168, 0.3871293068, -0.3639247119, 0.7939460278, 0.0174374077, 0.1872840524, -0.3707940578, 2.0791320801, -0.0586043261, 1.0050771236, -0.2361666262, 0.0356706381, 0.4640884101, -0.3581297994, 0.2607182562, 0.2572291493, 0.3733625412, 0.0340981893, -0.0374106579, 0.2968235314, 0.0774345323, 0.4561466575, 0.4280804396, -0.3743996322, -0.0310621019, -0.1303955913, 1.0296134949, -0.3247354031, 0.0594230220, 0.0639300644, 0.3142409325, -0.0935641006, -0.2789625525, -0.6110458374, 0.4574277997, -0.5351527929, -0.3409599066, 0.1086300984, 0.1491981745, 1.9909776449, 0.6636360884, 0.9884542823, -0.6431406140, -0.2738180459, 0.1049841717, -0.5409586430, 0.6841827631, 0.3192493916, -0.4070495665, -0.0642761812, -0.8359963298, -0.2355973423, 0.1672308743, 0.1154565811, -0.1559482366, -0.3028185368, 0.1049632877, 0.2240729481, -0.0033259075, -0.0459909029, -0.4463499188, 0.2694437802, 0.0075155315, -0.1433055550, -0.1076858193, -0.6774731278, 0.4940094948, -0.4741647542, -0.2006932646, -0.0557802878, -0.5494206548, -0.6598260403, -0.0021619480, 0.0566808395, 0.1922865063, -0.4322494864, 0.3614561856, -0.5222007036, -1.1483978033, -0.2116332203, -0.0916351974, -0.3926000595, 0.1555380970, -0.3389006853, 0.1034860685, 0.6285725832, 0.0874309093, 0.4703572392, 0.1347866058, 0.1803413033, -0.7327046990, 0.0338911302, 0.0601836257, 0.2191670537, 0.6319003105, 0.0434868895, -0.2017948329, 0.3903738856, -0.3865996599, -0.9319284558, -0.2677930295, 0.0465815924, 0.6893004775, 0.8241503239, 0.1115875766, -0.1608684808, 0.0915273055, 0.4690515101, -0.7946749926, -1.0578453541, -0.3206447959, -0.1333628595, -0.3443774879, -0.0135260504, -0.4176140130, 0.2406662405, 0.4204315245, -0.0514448956, -0.1964947283, 0.1361005455, -0.2765581906, -0.0653234050, 1.0321445465, 0.0340890884, 0.3665387034, 0.1285535544, -0.3940033913, 0.5403228998, -0.0641407818, 0.7868900299, 0.3909058571, 0.1667656749, 0.2941982150, 0.0480429158, 0.0401675887, -0.2345915288, -0.3411476910, 0.2612854838, -0.2092422545, 0.1250814348, 0.4167225659, -0.2480621636, -1.1845024824, 0.2907240093, 0.0835100040, -0.1573214233, -0.5405592322, -0.4088783562, 0.5743290186, -0.6940743327, -0.4280305207, -0.5055304766, 0.2267452180, 0.2928953171, 0.5064393878, 0.4410159290, 0.2749059796, 0.4143106937, -0.6981235147, -0.5963883996, -0.2356186509, 0.0490099639, -0.3797829151, 0.7133226991, -0.3022803068, 0.1435002387, 0.0676027462, -0.9435693026, -0.2331020385, -0.7040809989, 0.3598653376, 0.5757232904, 0.7647537589, 0.9816926122, -0.2950880826, 0.1814415604, 0.3620809913, -0.5053684711, 0.2652523518, -0.2652962804, 0.1410045028, 0.4854305089, -0.4381184876, -0.6557639837, 0.3608541191, 0.1369162351, -0.6410666704, 0.4762071967, 0.0241237488, -0.0044142450, -0.4369770586, 0.2327227741, 0.0891208798, 0.3105033040, -0.0309416614, 0.5255107880, -0.1925219744, -0.1244486421, 0.4646649659, -1.0063163042, 0.0577308163, 0.8653623462, -0.2954060733, -0.0753281564, -0.4888808727, -0.3127864599, 0.7176415920, 0.1523169130, 0.4223692715, -0.0528677925, -0.6338120699, 0.3786330521, 0.4662645459, -0.5760711432, -0.2568658590, 0.3141397834, -0.0070344051, -0.1218598709, 1.0106734037, 0.3532459140, -0.3720810711, 0.4455852211, -0.7487304807, 0.2962076664, 0.1674556732, 0.1341194212, 0.5846890807, -1.1385309696, -0.3595073223, -0.1065199748, 0.0229042750, -1.5612528324, 0.4511697292, 0.2499559373, -0.1223524511, -0.3459237218, -0.6398231387, -0.3995549679, -0.9764476418, 0.1588542014, 0.1355465651, -0.0533835664, 0.1218212023, -0.1336860955, 0.5312331319, 0.2523050308, 0.4234055281, -0.4479334950, 0.2425163239, -0.0548264645, 0.1708201170, 0.4556514025, -0.1819284260, 0.0983943194, -0.1078806520, 0.1244741082, 0.0629818663, 0.0508711971, 0.0151267862, -1.2987152338, -0.3608155549, 0.3239200413, 0.4286437631, -0.3976778686, -0.8112292886, -0.8968661427, -0.7866086960, 0.2717189193, 0.1281398535, 0.8321285844, 0.2085239291, -0.1684922725, 0.3463606238, -0.3866135180, 0.1289614290, 0.2091625482, 0.5376939774, -0.4632619619, -0.2978470325, 0.5640716553, -0.0612028167, -0.0684627667, -0.0891395584, 0.4060303569, -0.4144945443, -0.3976002038, 0.6818498373, 0.2531865239, 0.1257989556, -0.3131153584, 0.1703965515, -1.1254974604, -0.3444732428, -0.1481617093, 0.2864949703, -1.3571729660, 0.5663222671, 0.2214726955, 0.1316290349, -0.1242028698, 0.1883643270, 0.9923534393, 0.0928043872, 0.2235444188, 0.1862473190, 0.1571604013, 0.1739397645, -0.2364351898, 0.1574824750, -0.3149025738, 0.1733413488, -0.2210146785, 0.1851146817, 0.2560728788, -0.2122706175, -0.3323757946, -0.0190234389, 0.3174090385, 0.7044548392, 0.4818385839, -0.2762319744, 0.5897721052, -0.3166443706, 0.1488106400, -0.2170563340, -0.4072321951, 0.0201894343, 1.6053470373, -0.2504597306, -0.2816067040, -0.5429354310, 0.3106059432, -0.1413572431, -0.7970924377, -0.7423008680, 0.2007057369, -0.2519144714, 0.0540301427, -0.6501773000, -0.2651987076, -0.0587211624, -0.6684229970, 0.4261964858, -0.2020909190, -0.2158627063, -0.0466182679, 0.1957816780, 0.2180722952, -0.1667483747, 0.0323936380, 0.3047215044, -0.4273109436, -0.3110714555, -0.4984887242, -0.1919696480, 0.7543774247, 0.3699165285, 0.3096790910, 0.6364156604, -1.0286993980, -0.7811440229, 0.7243026495, -0.2938880920, 0.3116486371, 0.6118695140, 1.0745781660, 1.3263688087, 0.4034957886, 0.2587556839, 0.1043539122, -0.0982837081, 0.2761237025, -0.0521340817, -0.6614598036, 0.2752485871, -0.6158765554, 0.0615084395, -0.0331248529, 1.1549813747, 0.3535299599, -0.3401610851, 0.2655211389, 0.4835553765, 0.4689680934, 0.1014446244, 0.6532489061, -0.3645894229, 1.2868247032, -0.3507565260, 0.0691332147, -0.5660666227, 1.6685515642, -0.1976026595, -0.7484906912, 0.4340061247, 0.4632900655, 0.5612454414, 0.0333963297, 1.1878894567, 0.2419373244, 0.4106319547, -0.5602481365, 0.3635482788, -0.1785700172, 0.0416248851, 0.2537944913, -0.1595533788, 1.0129673481};

#endif

#endif
